Language model created by QuickLM on Sun Mar  8 00:18:38 EST 2020
Copyright (c) 1996-2010 Carnegie Mellon University and Alexander I. Rudnicky

The model is in standard ARPA format, designed by Doug Paul while he was at MITRE.

The code that was used to produce this language model is available in Open Source.
Please visit http://www.speech.cs.cmu.edu/tools/ for more information

The (fixed) discount mass is 0.5. The backoffs are computed using the ratio method.
This model based on a corpus of 5 sentences and 7 words

\data\
ngram 1=7
ngram 2=10
ngram 3=5

\1-grams:
-0.7782 </s> -0.3010
-0.7782 <s> -0.2218
-1.4771 木星 -0.2218
-1.4771 木星机器人 -0.2218
-1.4771 木行 -0.2218
-1.4771 模型 -0.2218
-1.4771 母性 -0.2218

\2-grams:
-1.0000 <s> 木星 0.0000
-1.0000 <s> 木星机器人 0.0000
-1.0000 <s> 木行 0.0000
-1.0000 <s> 模型 0.0000
-1.0000 <s> 母性 0.0000
-0.3010 木星 </s> -0.3010
-0.3010 木星机器人 </s> -0.3010
-0.3010 木行 </s> -0.3010
-0.3010 模型 </s> -0.3010
-0.3010 母性 </s> -0.3010

\3-grams:
-0.3010 <s> 木星 </s>
-0.3010 <s> 木星机器人 </s>
-0.3010 <s> 木行 </s>
-0.3010 <s> 模型 </s>
-0.3010 <s> 母性 </s>

\end\
